<?xml version="1.0"?>
<opencv_storage>
<cascade>
  <stageType>BOOST</stageType>
  <featureType>HAAR</featureType>
  <height>24</height>
  <width>24</width>
  <stageParams>
    <boostType>GAB</boostType>
    <minHitRate>9.9500000476837158e-01</minHitRate>
    <maxFalseAlarm>5.0000000000000000e-01</maxFalseAlarm>
    <weightTrimRate>9.4999999999999996e-01</weightTrimRate>
    <maxDepth>1</maxDepth>
    <maxWeakCount>100</maxWeakCount></stageParams>
  <featureParams>
    <maxCatCount>0</maxCatCount>
    <featSize>1</featSize>
    <mode>BASIC</mode></featureParams>
  <stageNum>10</stageNum>
  <stages>
    <!-- stage 0 -->
    <_>
      <maxWeakCount>3</maxWeakCount>
      <stageThreshold>-8.4196209907531738e-01</stageThreshold>
      <weakClassifiers>
        <_>
          <internalNodes>
            0 -1 40 1.3085868954658508e-01</internalNodes>
          <leafValues>
            -7.5321334600448608e-01 8.5450059175491333e-01</leafValues></_>
        <_>
          <internalNodes>
            0 -1 5 -5.4160412400960922e-02</internalNodes>
          <leafValues>
            8.2356345653533936e-01 -6.6866368055343628e-01</leafValues></_>
        <_>
          <internalNodes>
            0 -1 13 -9.2944258451461792e-01</internalNodes>
          <leafValues>
            5.7991492748260498e-01 -9.7239208221435547e-01</leafValues></_></weakClassifiers></_>
    <!-- stage 1 -->
    <_>
      <maxWeakCount>2</maxWeakCount>
      <stageThreshold>-3.9179702289402485e-03</stageThreshold>
      <weakClassifiers>
        <_>
          <internalNodes>
            0 -1 3 -5.1854178309440613e-02</internalNodes>
          <leafValues>
            8.4289276599884033e-01 -6.9346731901168823e-01</leafValues></_>
        <_>
          <internalNodes>
            0 -1 54 5.6309483945369720e-02</internalNodes>
          <leafValues>
            -8.4681075811386108e-01 7.1011054515838623e-01</leafValues></_></weakClassifiers></_>
    <!-- stage 2 -->
    <_>
      <maxWeakCount>5</maxWeakCount>
      <stageThreshold>-7.9016506671905518e-01</stageThreshold>
      <weakClassifiers>
        <_>
          <internalNodes>
            0 -1 22 2.7864690870046616e-02</internalNodes>
          <leafValues>
            -6.1151081323623657e-01 8.3652615547180176e-01</leafValues></_>
        <_>
          <internalNodes>
            0 -1 4 -1.1629072576761246e-01</internalNodes>
          <leafValues>
            7.5611829757690430e-01 -4.8353990912437439e-01</leafValues></_>
        <_>
          <internalNodes>
            0 -1 10 -5.0238251686096191e-01</internalNodes>
          <leafValues>
            4.4846785068511963e-01 -8.3969503641128540e-01</leafValues></_>
        <_>
          <internalNodes>
            0 -1 59 8.9537024497985840e-02</internalNodes>
          <leafValues>
            -6.2986767292022705e-01 5.6097501516342163e-01</leafValues></_>
        <_>
          <internalNodes>
            0 -1 32 -2.0729845389723778e-02</internalNodes>
          <leafValues>
            4.8628547787666321e-01 -4.9757307767868042e-01</leafValues></_></weakClassifiers></_>
    <!-- stage 3 -->
    <_>
      <maxWeakCount>5</maxWeakCount>
      <stageThreshold>-8.8583505153656006e-01</stageThreshold>
      <weakClassifiers>
        <_>
          <internalNodes>
            0 -1 22 3.9516679942607880e-02</internalNodes>
          <leafValues>
            -4.9122807383537292e-01 8.3870965242385864e-01</leafValues></_>
        <_>
          <internalNodes>
            0 -1 8 -1.3204813003540039e-02</internalNodes>
          <leafValues>
            5.7313555479049683e-01 -5.6244152784347534e-01</leafValues></_>
        <_>
          <internalNodes>
            0 -1 34 7.1435436606407166e-02</internalNodes>
          <leafValues>
            -6.3530027866363525e-01 5.1950007677078247e-01</leafValues></_>
        <_>
          <internalNodes>
            0 -1 31 -1.6263708472251892e-02</internalNodes>
          <leafValues>
            3.9669328927993774e-01 -6.2239408493041992e-01</leafValues></_>
        <_>
          <internalNodes>
            0 -1 24 -1.4269204810261726e-02</internalNodes>
          <leafValues>
            4.0644153952598572e-01 -4.6453136205673218e-01</leafValues></_></weakClassifiers></_>
    <!-- stage 4 -->
    <_>
      <maxWeakCount>7</maxWeakCount>
      <stageThreshold>-8.0031567811965942e-01</stageThreshold>
      <weakClassifiers>
        <_>
          <internalNodes>
            0 -1 41 4.1179642081260681e-02</internalNodes>
          <leafValues>
            -4.0554156899452209e-01 6.9863015413284302e-01</leafValues></_>
        <_>
          <internalNodes>
            0 -1 29 1.1563068255782127e-02</internalNodes>
          <leafValues>
            -4.8815965652465820e-01 6.0169869661331177e-01</leafValues></_>
        <_>
          <internalNodes>
            0 -1 51 3.6404307466000319e-03</internalNodes>
          <leafValues>
            -4.1248926520347595e-01 4.9770802259445190e-01</leafValues></_>
        <_>
          <internalNodes>
            0 -1 15 -5.7602591812610626e-02</internalNodes>
          <leafValues>
            5.6683313846588135e-01 -3.8515034317970276e-01</leafValues></_>
        <_>
          <internalNodes>
            0 -1 18 -2.5117482990026474e-02</internalNodes>
          <leafValues>
            4.3218269944190979e-01 -5.1645338535308838e-01</leafValues></_>
        <_>
          <internalNodes>
            0 -1 42 -3.6843406269326806e-04</internalNodes>
          <leafValues>
            -9.0729570388793945e-01 2.5380596518516541e-01</leafValues></_>
        <_>
          <internalNodes>
            0 -1 64 1.1946987360715866e-02</internalNodes>
          <leafValues>
            -6.2454479932785034e-01 2.6196646690368652e-01</leafValues></_></weakClassifiers></_>
    <!-- stage 5 -->
    <_>
      <maxWeakCount>8</maxWeakCount>
      <stageThreshold>-1.2261450290679932e+00</stageThreshold>
      <weakClassifiers>
        <_>
          <internalNodes>
            0 -1 25 4.8703134059906006e-02</internalNodes>
          <leafValues>
            -3.6619716882705688e-01 7.1834623813629150e-01</leafValues></_>
        <_>
          <internalNodes>
            0 -1 14 -4.7800600528717041e-02</internalNodes>
          <leafValues>
            7.5877898931503296e-01 -2.4018989503383636e-01</leafValues></_>
        <_>
          <internalNodes>
            0 -1 56 -5.3814328275620937e-03</internalNodes>
          <leafValues>
            4.7985666990280151e-01 -4.8536404967308044e-01</leafValues></_>
        <_>
          <internalNodes>
            0 -1 60 3.2833620905876160e-02</internalNodes>
          <leafValues>
            -5.4692190885543823e-01 3.7312775850296021e-01</leafValues></_>
        <_>
          <internalNodes>
            0 -1 27 -1.4435192570090294e-03</internalNodes>
          <leafValues>
            3.3541309833526611e-01 -5.4396384954452515e-01</leafValues></_>
        <_>
          <internalNodes>
            0 -1 43 -4.4068843126296997e-03</internalNodes>
          <leafValues>
            -8.9196455478668213e-01 2.0602893829345703e-01</leafValues></_>
        <_>
          <internalNodes>
            0 -1 33 -1.5841346234083176e-02</internalNodes>
          <leafValues>
            -9.6215373277664185e-01 1.4811959862709045e-01</leafValues></_>
        <_>
          <internalNodes>
            0 -1 19 -4.8785628750920296e-03</internalNodes>
          <leafValues>
            4.2595589160919189e-01 -3.9662560820579529e-01</leafValues></_></weakClassifiers></_>
    <!-- stage 6 -->
    <_>
      <maxWeakCount>8</maxWeakCount>
      <stageThreshold>-7.7051419019699097e-01</stageThreshold>
      <weakClassifiers>
        <_>
          <internalNodes>
            0 -1 9 -1.1303048580884933e-02</internalNodes>
          <leafValues>
            6.0687434673309326e-01 -6.1338287591934204e-01</leafValues></_>
        <_>
          <internalNodes>
            0 -1 65 -1.3402276672422886e-03</internalNodes>
          <leafValues>
            4.5168402791023254e-01 -5.1185238361358643e-01</leafValues></_>
        <_>
          <internalNodes>
            0 -1 37 3.9929687045514584e-03</internalNodes>
          <leafValues>
            -7.7283811569213867e-01 2.7800047397613525e-01</leafValues></_>
        <_>
          <internalNodes>
            0 -1 63 6.3658365979790688e-04</internalNodes>
          <leafValues>
            -6.1568593978881836e-01 2.2774271667003632e-01</leafValues></_>
        <_>
          <internalNodes>
            0 -1 35 -5.5605862289667130e-03</internalNodes>
          <leafValues>
            2.7370136976242065e-01 -6.2602311372756958e-01</leafValues></_>
        <_>
          <internalNodes>
            0 -1 7 -1.4399567618966103e-02</internalNodes>
          <leafValues>
            2.0035770535469055e-01 -8.2071512937545776e-01</leafValues></_>
        <_>
          <internalNodes>
            0 -1 38 -2.5144598912447691e-03</internalNodes>
          <leafValues>
            -8.5453337430953979e-01 1.5861453115940094e-01</leafValues></_>
        <_>
          <internalNodes>
            0 -1 44 -2.3475127818528563e-04</internalNodes>
          <leafValues>
            -8.4748733043670654e-01 1.4703506231307983e-01</leafValues></_></weakClassifiers></_>
    <!-- stage 7 -->
    <_>
      <maxWeakCount>9</maxWeakCount>
      <stageThreshold>-9.2333388328552246e-01</stageThreshold>
      <weakClassifiers>
        <_>
          <internalNodes>
            0 -1 17 3.8506977260112762e-02</internalNodes>
          <leafValues>
            -4.7720363736152649e-01 6.3949483633041382e-01</leafValues></_>
        <_>
          <internalNodes>
            0 -1 11 -1.7732014879584312e-02</internalNodes>
          <leafValues>
            4.7758522629737854e-01 -5.3467315435409546e-01</leafValues></_>
        <_>
          <internalNodes>
            0 -1 53 1.2419815361499786e-01</internalNodes>
          <leafValues>
            -7.5848782062530518e-01 2.6204964518547058e-01</leafValues></_>
        <_>
          <internalNodes>
            0 -1 23 7.3165502399206161e-03</internalNodes>
          <leafValues>
            -3.8916313648223877e-01 5.3386056423187256e-01</leafValues></_>
        <_>
          <internalNodes>
            0 -1 48 2.2985825780779123e-03</internalNodes>
          <leafValues>
            -3.4737432003021240e-01 4.3428558111190796e-01</leafValues></_>
        <_>
          <internalNodes>
            0 -1 26 -8.6069762706756592e-02</internalNodes>
          <leafValues>
            -9.8455137014389038e-01 1.0834807157516479e-01</leafValues></_>
        <_>
          <internalNodes>
            0 -1 45 -5.6250905618071556e-04</internalNodes>
          <leafValues>
            -8.2896983623504639e-01 1.3536977767944336e-01</leafValues></_>
        <_>
          <internalNodes>
            0 -1 28 -1.3555926084518433e-01</internalNodes>
          <leafValues>
            1.8674997985363007e-01 -7.0052289962768555e-01</leafValues></_>
        <_>
          <internalNodes>
            0 -1 6 -3.6707089748233557e-04</internalNodes>
          <leafValues>
            1.6508248448371887e-01 -7.9046076536178589e-01</leafValues></_></weakClassifiers></_>
    <!-- stage 8 -->
    <_>
      <maxWeakCount>11</maxWeakCount>
      <stageThreshold>-8.6903393268585205e-01</stageThreshold>
      <weakClassifiers>
        <_>
          <internalNodes>
            0 -1 36 -1.6591991297900677e-03</internalNodes>
          <leafValues>
            6.0176992416381836e-01 -4.8648649454116821e-01</leafValues></_>
        <_>
          <internalNodes>
            0 -1 21 -8.4965638816356659e-03</internalNodes>
          <leafValues>
            5.3301727771759033e-01 -3.4253752231597900e-01</leafValues></_>
        <_>
          <internalNodes>
            0 -1 61 4.7276265919208527e-02</internalNodes>
          <leafValues>
            -4.5346325635910034e-01 3.8492125272750854e-01</leafValues></_>
        <_>
          <internalNodes>
            0 -1 52 -2.2477604215964675e-04</internalNodes>
          <leafValues>
            -7.3444789648056030e-01 2.2128355503082275e-01</leafValues></_>
        <_>
          <internalNodes>
            0 -1 30 -5.0139024853706360e-02</internalNodes>
          <leafValues>
            5.7460767030715942e-01 -2.9895290732383728e-01</leafValues></_>
        <_>
          <internalNodes>
            0 -1 62 -1.9566800910979509e-03</internalNodes>
          <leafValues>
            -7.1597057580947876e-01 1.8659716844558716e-01</leafValues></_>
        <_>
          <internalNodes>
            0 -1 57 1.5947139763738960e-04</internalNodes>
          <leafValues>
            1.7226314544677734e-01 -7.3029553890228271e-01</leafValues></_>
        <_>
          <internalNodes>
            0 -1 46 1.1250863317400217e-03</internalNodes>
          <leafValues>
            1.6458474099636078e-01 -8.0255347490310669e-01</leafValues></_>
        <_>
          <internalNodes>
            0 -1 12 6.1721302336081862e-04</internalNodes>
          <leafValues>
            1.5471161901950836e-01 -7.3751711845397949e-01</leafValues></_>
        <_>
          <internalNodes>
            0 -1 2 1.3787319883704185e-02</internalNodes>
          <leafValues>
            -2.8731787204742432e-01 5.0222331285476685e-01</leafValues></_>
        <_>
          <internalNodes>
            0 -1 50 -1.8834711611270905e-01</internalNodes>
          <leafValues>
            1.6445803642272949e-01 -8.2618165016174316e-01</leafValues></_></weakClassifiers></_>
    <!-- stage 9 -->
    <_>
      <maxWeakCount>10</maxWeakCount>
      <stageThreshold>-8.1973826885223389e-01</stageThreshold>
      <weakClassifiers>
        <_>
          <internalNodes>
            0 -1 16 1.7772443592548370e-02</internalNodes>
          <leafValues>
            -4.5390069484710693e-01 5.7516342401504517e-01</leafValues></_>
        <_>
          <internalNodes>
            0 -1 39 1.3829553499817848e-02</internalNodes>
          <leafValues>
            -5.4309093952178955e-01 4.3017786741256714e-01</leafValues></_>
        <_>
          <internalNodes>
            0 -1 20 -9.6071891486644745e-02</internalNodes>
          <leafValues>
            6.4635670185089111e-01 -2.4718824028968811e-01</leafValues></_>
        <_>
          <internalNodes>
            0 -1 66 -1.6005521174520254e-03</internalNodes>
          <leafValues>
            3.8903993368148804e-01 -3.5891076922416687e-01</leafValues></_>
        <_>
          <internalNodes>
            0 -1 47 -3.5554086207412183e-04</internalNodes>
          <leafValues>
            -8.2847857475280762e-01 1.1927273124456406e-01</leafValues></_>
        <_>
          <internalNodes>
            0 -1 0 -3.2983851432800293e-01</internalNodes>
          <leafValues>
            1.1191859841346741e-01 -9.6733874082565308e-01</leafValues></_>
        <_>
          <internalNodes>
            0 -1 58 -5.1375944167375565e-04</internalNodes>
          <leafValues>
            -7.7901065349578857e-01 1.2222482264041901e-01</leafValues></_>
        <_>
          <internalNodes>
            0 -1 49 -1.0294206440448761e-02</internalNodes>
          <leafValues>
            -6.3514083623886108e-01 1.8385338783264160e-01</leafValues></_>
        <_>
          <internalNodes>
            0 -1 55 1.3784386217594147e-02</internalNodes>
          <leafValues>
            -2.5384888052940369e-01 5.2711743116378784e-01</leafValues></_>
        <_>
          <internalNodes>
            0 -1 1 -8.5573457181453705e-03</internalNodes>
          <leafValues>
            5.1244211196899414e-01 -2.5509092211723328e-01</leafValues></_></weakClassifiers></_></stages>
  <features>
    <_>
      <rects>
        <_>
          0 2 9 20 -1.</_>
        <_>
          3 2 3 20 2.</_></rects>
      <tilted>0</tilted></_>
    <_>
      <rects>
        <_>
          0 3 10 4 -1.</_>
        <_>
          0 3 5 2 2.</_>
        <_>
          5 5 5 2 2.</_></rects>
      <tilted>0</tilted></_>
    <_>
      <rects>
        <_>
          0 6 12 8 -1.</_>
        <_>
          0 6 6 4 2.</_>
        <_>
          6 10 6 4 2.</_></rects>
      <tilted>0</tilted></_>
    <_>
      <rects>
        <_>
          0 7 8 15 -1.</_>
        <_>
          4 7 4 15 2.</_></rects>
      <tilted>0</tilted></_>
    <_>
      <rects>
        <_>
          0 7 10 15 -1.</_>
        <_>
          5 7 5 15 2.</_></rects>
      <tilted>0</tilted></_>
    <_>
      <rects>
        <_>
          0 12 8 10 -1.</_>
        <_>
          4 12 4 10 2.</_></rects>
      <tilted>0</tilted></_>
    <_>
      <rects>
        <_>
          0 12 12 1 -1.</_>
        <_>
          6 12 6 1 2.</_></rects>
      <tilted>0</tilted></_>
    <_>
      <rects>
        <_>
          0 13 1 6 -1.</_>
        <_>
          0 15 1 2 2.</_></rects>
      <tilted>0</tilted></_>
    <_>
      <rects>
        <_>
          0 13 6 5 -1.</_>
        <_>
          3 13 3 5 2.</_></rects>
      <tilted>0</tilted></_>
    <_>
      <rects>
        <_>
          0 14 6 5 -1.</_>
        <_>
          3 14 3 5 2.</_></rects>
      <tilted>0</tilted></_>
    <_>
      <rects>
        <_>
          0 15 24 8 -1.</_>
        <_>
          8 15 8 8 2.</_></rects>
      <tilted>0</tilted></_>
    <_>
      <rects>
        <_>
          0 19 10 2 -1.</_>
        <_>
          5 19 5 2 2.</_></rects>
      <tilted>0</tilted></_>
    <_>
      <rects>
        <_>
          0 22 2 2 -1.</_>
        <_>
          0 23 2 1 2.</_></rects>
      <tilted>0</tilted></_>
    <_>
      <rects>
        <_>
          1 3 22 21 -1.</_>
        <_>
          1 10 22 7 2.</_></rects>
      <tilted>0</tilted></_>
    <_>
      <rects>
        <_>
          1 5 12 3 -1.</_>
        <_>
          7 5 6 3 2.</_></rects>
      <tilted>0</tilted></_>
    <_>
      <rects>
        <_>
          1 8 6 12 -1.</_>
        <_>
          4 8 3 12 2.</_></rects>
      <tilted>0</tilted></_>
    <_>
      <rects>
        <_>
          1 17 9 6 -1.</_>
        <_>
          1 20 9 3 2.</_></rects>
      <tilted>0</tilted></_>
    <_>
      <rects>
        <_>
          1 18 18 6 -1.</_>
        <_>
          1 21 18 3 2.</_></rects>
      <tilted>0</tilted></_>
    <_>
      <rects>
        <_>
          2 1 8 10 -1.</_>
        <_>
          2 6 8 5 2.</_></rects>
      <tilted>0</tilted></_>
    <_>
      <rects>
        <_>
          2 4 6 6 -1.</_>
        <_>
          2 4 3 3 2.</_>
        <_>
          5 7 3 3 2.</_></rects>
      <tilted>0</tilted></_>
    <_>
      <rects>
        <_>
          2 4 10 7 -1.</_>
        <_>
          7 4 5 7 2.</_></rects>
      <tilted>0</tilted></_>
    <_>
      <rects>
        <_>
          2 15 8 6 -1.</_>
        <_>
          2 15 4 3 2.</_>
        <_>
          6 18 4 3 2.</_></rects>
      <tilted>0</tilted></_>
    <_>
      <rects>
        <_>
          2 18 14 6 -1.</_>
        <_>
          2 21 14 3 2.</_></rects>
      <tilted>0</tilted></_>
    <_>
      <rects>
        <_>
          3 8 8 6 -1.</_>
        <_>
          3 8 4 3 2.</_>
        <_>
          7 11 4 3 2.</_></rects>
      <tilted>0</tilted></_>
    <_>
      <rects>
        <_>
          3 9 4 11 -1.</_>
        <_>
          5 9 2 11 2.</_></rects>
      <tilted>0</tilted></_>
    <_>
      <rects>
        <_>
          3 18 15 6 -1.</_>
        <_>
          3 21 15 3 2.</_></rects>
      <tilted>0</tilted></_>
    <_>
      <rects>
        <_>
          4 6 9 2 -1.</_>
        <_>
          7 6 3 2 2.</_></rects>
      <tilted>0</tilted></_>
    <_>
      <rects>
        <_>
          4 16 8 6 -1.</_>
        <_>
          4 16 4 3 2.</_>
        <_>
          8 19 4 3 2.</_></rects>
      <tilted>0</tilted></_>
    <_>
      <rects>
        <_>
          5 0 19 3 -1.</_>
        <_>
          5 1 19 1 2.</_></rects>
      <tilted>0</tilted></_>
    <_>
      <rects>
        <_>
          5 18 3 6 -1.</_>
        <_>
          5 21 3 3 2.</_></rects>
      <tilted>0</tilted></_>
    <_>
      <rects>
        <_>
          7 0 7 8 -1.</_>
        <_>
          7 4 7 4 2.</_></rects>
      <tilted>0</tilted></_>
    <_>
      <rects>
        <_>
          7 0 7 10 -1.</_>
        <_>
          7 5 7 5 2.</_></rects>
      <tilted>0</tilted></_>
    <_>
      <rects>
        <_>
          7 0 10 6 -1.</_>
        <_>
          7 3 10 3 2.</_></rects>
      <tilted>0</tilted></_>
    <_>
      <rects>
        <_>
          7 21 1 3 -1.</_>
        <_>
          7 22 1 1 2.</_></rects>
      <tilted>0</tilted></_>
    <_>
      <rects>
        <_>
          8 6 16 5 -1.</_>
        <_>
          16 6 8 5 2.</_></rects>
      <tilted>0</tilted></_>
    <_>
      <rects>
        <_>
          9 0 11 6 -1.</_>
        <_>
          9 3 11 3 2.</_></rects>
      <tilted>0</tilted></_>
    <_>
      <rects>
        <_>
          9 6 8 12 -1.</_>
        <_>
          9 6 4 6 2.</_>
        <_>
          13 12 4 6 2.</_></rects>
      <tilted>0</tilted></_>
    <_>
      <rects>
        <_>
          9 9 12 1 -1.</_>
        <_>
          15 9 6 1 2.</_></rects>
      <tilted>0</tilted></_>
    <_>
      <rects>
        <_>
          9 10 1 14 -1.</_>
        <_>
          9 17 1 7 2.</_></rects>
      <tilted>0</tilted></_>
    <_>
      <rects>
        <_>
          9 19 12 3 -1.</_>
        <_>
          15 19 6 3 2.</_></rects>
      <tilted>0</tilted></_>
    <_>
      <rects>
        <_>
          10 4 14 17 -1.</_>
        <_>
          17 4 7 17 2.</_></rects>
      <tilted>0</tilted></_>
    <_>
      <rects>
        <_>
          10 5 14 3 -1.</_>
        <_>
          17 5 7 3 2.</_></rects>
      <tilted>0</tilted></_>
    <_>
      <rects>
        <_>
          10 11 1 2 -1.</_>
        <_>
          10 12 1 1 2.</_></rects>
      <tilted>0</tilted></_>
    <_>
      <rects>
        <_>
          10 12 6 5 -1.</_>
        <_>
          13 12 3 5 2.</_></rects>
      <tilted>0</tilted></_>
    <_>
      <rects>
        <_>
          10 13 2 2 -1.</_>
        <_>
          10 13 1 1 2.</_>
        <_>
          11 14 1 1 2.</_></rects>
      <tilted>0</tilted></_>
    <_>
      <rects>
        <_>
          10 13 2 2 -1.</_>
        <_>
          11 13 1 2 2.</_></rects>
      <tilted>0</tilted></_>
    <_>
      <rects>
        <_>
          10 15 4 1 -1.</_>
        <_>
          12 15 2 1 2.</_></rects>
      <tilted>0</tilted></_>
    <_>
      <rects>
        <_>
          10 17 2 1 -1.</_>
        <_>
          11 17 1 1 2.</_></rects>
      <tilted>0</tilted></_>
    <_>
      <rects>
        <_>
          10 17 10 4 -1.</_>
        <_>
          10 17 5 2 2.</_>
        <_>
          15 19 5 2 2.</_></rects>
      <tilted>0</tilted></_>
    <_>
      <rects>
        <_>
          11 5 3 1 -1.</_>
        <_>
          12 5 1 1 2.</_></rects>
      <tilted>0</tilted></_>
    <_>
      <rects>
        <_>
          11 5 12 8 -1.</_>
        <_>
          15 5 4 8 2.</_></rects>
      <tilted>0</tilted></_>
    <_>
      <rects>
        <_>
          11 13 10 10 -1.</_>
        <_>
          11 13 5 5 2.</_>
        <_>
          16 18 5 5 2.</_></rects>
      <tilted>0</tilted></_>
    <_>
      <rects>
        <_>
          11 17 2 1 -1.</_>
        <_>
          12 17 1 1 2.</_></rects>
      <tilted>0</tilted></_>
    <_>
      <rects>
        <_>
          12 4 12 18 -1.</_>
        <_>
          18 4 6 18 2.</_></rects>
      <tilted>0</tilted></_>
    <_>
      <rects>
        <_>
          12 5 12 10 -1.</_>
        <_>
          18 5 6 10 2.</_></rects>
      <tilted>0</tilted></_>
    <_>
      <rects>
        <_>
          12 15 10 8 -1.</_>
        <_>
          12 15 5 4 2.</_>
        <_>
          17 19 5 4 2.</_></rects>
      <tilted>0</tilted></_>
    <_>
      <rects>
        <_>
          13 7 8 8 -1.</_>
        <_>
          13 11 8 4 2.</_></rects>
      <tilted>0</tilted></_>
    <_>
      <rects>
        <_>
          13 13 2 2 -1.</_>
        <_>
          13 13 1 1 2.</_>
        <_>
          14 14 1 1 2.</_></rects>
      <tilted>0</tilted></_>
    <_>
      <rects>
        <_>
          14 12 4 2 -1.</_>
        <_>
          14 12 2 1 2.</_>
        <_>
          16 13 2 1 2.</_></rects>
      <tilted>0</tilted></_>
    <_>
      <rects>
        <_>
          15 1 8 22 -1.</_>
        <_>
          19 1 4 22 2.</_></rects>
      <tilted>0</tilted></_>
    <_>
      <rects>
        <_>
          16 3 6 13 -1.</_>
        <_>
          19 3 3 13 2.</_></rects>
      <tilted>0</tilted></_>
    <_>
      <rects>
        <_>
          17 2 6 15 -1.</_>
        <_>
          20 2 3 15 2.</_></rects>
      <tilted>0</tilted></_>
    <_>
      <rects>
        <_>
          17 10 1 6 -1.</_>
        <_>
          17 13 1 3 2.</_></rects>
      <tilted>0</tilted></_>
    <_>
      <rects>
        <_>
          17 14 2 8 -1.</_>
        <_>
          18 14 1 8 2.</_></rects>
      <tilted>0</tilted></_>
    <_>
      <rects>
        <_>
          18 5 4 16 -1.</_>
        <_>
          20 5 2 16 2.</_></rects>
      <tilted>0</tilted></_>
    <_>
      <rects>
        <_>
          18 6 3 4 -1.</_>
        <_>
          18 8 3 2 2.</_></rects>
      <tilted>0</tilted></_>
    <_>
      <rects>
        <_>
          19 6 2 4 -1.</_>
        <_>
          19 8 2 2 2.</_></rects>
      <tilted>0</tilted></_></features></cascade>
</opencv_storage>
